<?xml version="1.0"?>
<opencv_storage>
<cascade type_id="opencv-haar-classifier">
  <size>
    24 24</size>
  <stages>
    <_>
      <!-- stage 0 -->
      <trees>
        <_>
          <!-- tree 0 -->
          <_>
            <!-- root node -->
            <feature>
              <rects>
                <_>
                  10 5 4 12 -1.</_>
                <_>
                  10 11 4 6 2.</_></rects>
              <tilted>0</tilted></feature>
            <threshold>-4.6379618346691132e-002</threshold>
            <left_val>2.5438600778579712e-001</left_val>
            <right_val>-7.0684057474136353e-001</right_val></_></_>
        <_>
          <!-- tree 1 -->
          <_>
            <!-- root node -->
            <feature>
              <rects>
                <_>
                  0 15 24 3 -1.</_>
                <_>
                  8 15 8 3 3.</_></rects>
              <tilted>0</tilted></feature>
            <threshold>-4.4458169490098953e-002</threshold>
            <left_val>3.8042101263999939e-001</left_val>
            <right_val>-4.7753208875656128e-001</right_val></_></_>
        <_>
          <!-- tree 2 -->
          <_>
            <!-- root node -->
            <feature>
              <rects>
                <_>
                  1 12 22 8 -1.</_>
                <_>
                  12 12 11 8 2.</_></rects>
              <tilted>0</tilted></feature>
            <threshold>-1.4284969866275787e-001</threshold>
            <left_val>-9.5936667919158936e-001</left_val>
            <right_val>9.9868111312389374e-002</right_val></_></_>
        <_>
          <!-- tree 3 -->
          <_>
            <!-- root node -->
            <feature>
              <rects>
                <_>
                  13 7 8 16 -1.</_>
                <_>
                  17 7 4 8 2.</_>
                <_>
                  13 15 4 8 2.</_></rects>
              <tilted>0</tilted></feature>
            <threshold>-4.9683351069688797e-002</threshold>
            <left_val>3.8311821222305298e-001</left_val>
            <right_val>-1.0004830360412598e-001</right_val></_></_>
        <_>
          <!-- tree 4 -->
          <_>
            <!-- root node -->
            <feature>
              <rects>
                <_>
                  4 0 13 24 -1.</_>
                <_>
                  4 8 13 8 3.</_></rects>
              <tilted>0</tilted></feature>
            <threshold>-1.6955499351024628e-001</threshold>
            <left_val>4.4954839348793030e-001</left_val>
            <right_val>-2.4210380017757416e-001</right_val></_></_>
        <_>
          <!-- tree 5 -->
          <_>
            <!-- root node -->
            <feature>
              <rects>
                <_>
                  9 5 6 12 -1.</_>
                <_>
                  9 9 6 4 3.</_></rects>
              <tilted>0</tilted></feature>
            <threshold>6.3095442950725555e-002</threshold>
            <left_val>-1.6884289681911469e-001</left_val>
            <right_val>7.2182697057723999e-001</right_val></_></_>
        <_>
          <!-- tree 6 -->
          <_>
            <!-- root node -->
            <feature>
              <rects>
                <_>
                  6 11 3 7 -1.</_>
                <_>
                  7 11 1 7 3.</_></rects>
              <tilted>0</tilted></feature>
            <threshold>-1.9201720133423805e-003</threshold>
            <left_val>4.7273978590965271e-001</left_val>
            <right_val>-1.9846369326114655e-001</right_val></_></_>
        <_>
          <!-- tree 7 -->
          <_>
            <!-- root node -->
            <feature>
              <rects>
                <_>
                  14 9 10 15 -1.</_>
                <_>
                  14 9 5 15 2.</_></rects>
              <tilted>0</tilted></feature>
            <threshold>-6.7119583487510681e-002</threshold>
            <left_val>3.2159599661827087e-001</left_val>
            <right_val>-1.4254090189933777e-001</right_val></_></_>
        <_>
          <!-- tree 8 -->
          <_>
            <!-- root node -->
            <feature>
              <rects>
                <_>
                  0 3 24 7 -1.</_>
                <_>
                  8 3 8 7 3.</_></rects>
              <tilted>0</tilted></feature>
            <threshold>1.1296159774065018e-001</threshold>
            <left_val>-2.3059199750423431e-001</left_val>
            <right_val>5.2018421888351440e-001</right_val></_></_></trees>
      <stage_threshold>-1.4754439592361450e+000</stage_threshold>
      <parent>-1</parent>
      <next>-1</next></_>
    <_>
      <!-- stage 1 -->
      <trees>
        <_>
          <!-- tree 0 -->
          <_>
            <!-- root node -->
            <feature>
              <rects>
                <_>
                  7 10 9 12 -1.</_>
                <_>
                  7 14 9 4 3.</_></rects>
              <tilted>0</tilted></feature>
            <threshold>-1.1221180111169815e-001</threshold>
            <left_val>3.2307690382003784e-001</left_val>
            <right_val>-6.1241012811660767e-001</right_val></_></_>
        <_>
          <!-- tree 1 -->
          <_>
            <!-- root node -->
            <feature>
              <rects>
                <_>
                  10 13 14 9 -1.</_>
                <_>
                  10 13 7 9 2.</_></rects>
              <tilted>0</tilted></feature>
            <threshold>-1.0845249891281128e-001</threshold>
            <left_val>3.4586641192436218e-001</left_val>
            <right_val>-2.8655651211738586e-001</right_val></_></_>
        <_>
          <!-- tree 2 -->
          <_>
            <!-- root node -->
            <feature>
              <rects>
                <_>
                  6 2 12 14 -1.</_>
                <_>
                  6 9 12 7 2.</_></rects>
              <tilted>0</tilted></feature>
            <threshold>-1.2008090317249298e-001</threshold>
            <left_val>4.1550108790397644e-001</left_val>
            <right_val>-2.7928429841995239e-001</right_val></_></_>
        <_>
          <!-- tree 3 -->
          <_>
            <!-- root node -->
            <feature>
              <rects>
                <_>
                  16 18 8 1 -1.</_>
                <_>
                  16 18 4 1 2.</_></rects>
              <tilted>0</tilted></feature>
            <threshold>-9.9120661616325378e-004</threshold>
            <left_val>1.5758730471134186e-001</left_val>
            <right_val>-1.4047509431838989e-001</right_val></_></_>
        <_>
          <!-- tree 4 -->
          <_>
            <!-- root node -->
            <feature>
              <rects>
                <_>
                  6 19 6 4 -1.</_>
                <_>
                  8 19 2 4 3.</_></rects>
              <tilted>0</tilted></feature>
            <threshold>8.0710910260677338e-003</threshold>
            <left_val>1.1599340289831161e-001</left_val>
            <right_val>-6.9420319795608521e-001</right_val></_></_>
        <_>
          <!-- tree 5 -->
          <_>
            <!-- root node -->
            <feature>
              <rects>
                <_>
                  11 22 4 1 -1.</_>
                <_>
                  11 22 2 1 2.</_></rects>
              <tilted>0</tilted></feature>
            <threshold>-2.4074329994618893e-003</threshold>
            <left_val>-6.1252272129058838e-001</left_val>
            <right_val>7.6014272868633270e-002</right_val></_></_>
        <_>
          <!-- tree 6 -->
          <_>
            <!-- root node -->
            <feature>
              <rects>
                <_>
                  9 22 6 2 -1.</_>
                <_>
                  11 22 2 2 3.</_></rects>
              <tilted>0</tilted></feature>
            <threshold>1.8350749742239714e-003</threshold>
            <left_val>1.6292630136013031e-001</left_val>
            <right_val>-4.5962029695510864e-001</right_val></_></_>
        <_>
          <!-- tree 7 -->
          <_>
            <!-- root node -->
            <feature>
              <rects>
                <_>
                  16 18 8 1 -1.</_>
                <_>
                  16 18 4 1 2.</_></rects>
              <tilted>0</tilted></feature>
            <threshold>2.7628540992736816e-003</threshold>
            <left_val>-9.1259412467479706e-002</left_val>
            <right_val>2.6326099038124084e-001</right_val></_></_>
        <_>
          <!-- tree 8 -->
          <_>
            <!-- root node -->
            <feature>
              <rects>
                <_>
                  0 18 8 1 -1.</_>
                <_>
                  4 18 4 1 2.</_></rects>
              <tilted>0</tilted></feature>
            <threshold>-3.9548790082335472e-003</threshold>
            <left_val>4.3383350968360901e-001</left_val>
            <right_val>-2.2627960145473480e-001</right_val></_></_>
        <_>
          <!-- tree 9 -->
          <_>
            <!-- root node -->
            <feature>
              <rects>
                <_>
                  12 1 10 10 -1.</_>
                <_>
                  17 1 5 5 2.</_>
                <_>
                  12 6 5 5 2.</_></rects>
              <tilted>0</tilted></feature>
            <threshold>6.9470807909965515e-002</threshold>
            <left_val>-6.1692498624324799e-002</left_val>
            <right_val>6.7169672250747681e-001</right_val></_></_>
        <_>
          <!-- tree 10 -->
          <_>
            <!-- root node -->
            <feature>
              <rects>
                <_>
                  8 2 8 21 -1.</_>
                <_>
                  8 9 8 7 3.</_></rects>
              <tilted>0</tilted></feature>
            <threshold>-2.1937370300292969e-001</threshold>
            <left_val>6.7640197277069092e-001</left_val>
            <right_val>-1.3402140140533447e-001</right_val></_></_>
        <_>
          <!-- tree 11 -->
          <_>
            <!-- root node -->
            <feature>
              <rects>
                <_>
                  12 1 10 10 -1.</_>
                <_>
                  17 1 5 5 2.</_>
                <_>
                  12 6 5 5 2.</_></rects>
              <tilted>0</tilted></feature>
            <threshold>-4.3211549520492554e-002</threshold>
            <left_val>3.8764071464538574e-001</left_val>
            <right_val>-3.6895651370286942e-002</right_val></_></_>
        <_>
          <!-- tree 12 -->
          <_>
            <!-- root node -->
            <feature>
              <rects>
                <_>
                  2 1 10 10 -1.</_>
                <_>
                  2 1 5 5 2.</_>
                <_>
                  7 6 5 5 2.</_></rects>
              <tilted>0</tilted></feature>
            <threshold>2.6914540678262711e-002</threshold>
            <left_val>-1.9469089806079865e-001</left_val>
            <right_val>5.1824980974197388e-001</right_val></_></_>
        <_>
          <!-- tree 13 -->
          <_>
            <!-- root node -->
            <feature>
              <rects>
                <_>
                  12 14 10 10 -1.</_>
                <_>
                  12 14 5 10 2.</_></rects>
              <tilted>0</tilted></feature>
            <threshold>-2.4424869567155838e-002</threshold>
            <left_val>1.0137390345335007e-001</left_val>
            <right_val>-8.4898501634597778e-002</right_val></_></_>
        <_>
          <!-- tree 14 -->
          <_>
            <!-- root node -->
            <feature>
              <rects>
                <_>
                  0 0 24 9 -1.</_>
                <_>
                  12 0 12 9 2.</_></rects>
              <tilted>0</tilted></feature>
            <threshold>9.2626512050628662e-002</threshold>
            <left_val>1.3797089457511902e-001</left_val>
            <right_val>-5.6912708282470703e-001</right_val></_></_>
        <_>
          <!-- tree 15 -->
          <_>
            <!-- root node -->
            <feature>
              <rects>
                <_>
                  14 6 3 3 -1.</_>
                <_>
                  15 6 1 3 3.</_></rects>
              <tilted>0</tilted></feature>
            <threshold>5.7727061212062836e-003</threshold>
            <left_val>2.7385119348764420e-002</left_val>
            <right_val>-7.3012518882751465e-001</right_val></_></_>
        <_>
          <!-- tree 16 -->
          <_>
            <!-- root node -->
            <feature>
              <rects>
                <_>
                  7 6 3 3 -1.</_>
                <_>
                  8 6 1 3 3.</_></rects>
              <tilted>0</tilted></feature>
            <threshold>-5.0008908146992326e-004</threshold>
            <left_val>3.7086668610572815e-001</left_val>
            <right_val>-2.4227219820022583e-001</right_val></_></_>
        <_>
          <!-- tree 17 -->
          <_>
            <!-- root node -->
            <feature>
              <rects>
                <_>
                  19 16 4 3 -1.</_>
                <_>
                  19 17 4 1 3.</_></rects>
              <tilted>0</tilted></feature>
            <threshold>2.2623939439654350e-003</threshold>
            <left_val>-7.9633809626102448e-002</left_val>
            <right_val>2.4795719981193542e-001</right_val></_></_>
        <_>
          <!-- tree 18 -->
          <_>
            <!-- root node -->
            <feature>
              <rects>
                <_>
                  1 10 10 6 -1.</_>
                <_>
                  1 10 5 3 2.</_>
                <_>
                  6 13 5 3 2.</_></rects>
              <tilted>0</tilted></feature>
            <threshold>-2.7685010805726051e-002</threshold>
            <left_val>5.4013121128082275e-001</left_val>
            <right_val>-1.1955139786005020e-001</right_val></_></_></trees>
      <stage_threshold>-1.3566910028457642e+000</stage_threshold>
      <parent>0</parent>
      <next>-1</next></_>
    <_>
      <!-- stage 2 -->
      <trees>
        <_>
          <!-- tree 0 -->
          <_>
            <!-- root node -->
            <feature>
              <rects>
                <_>
                  9 6 5 18 -1.</_>
                <_>
                  9 12 5 6 3.</_></rects>
              <tilted>0</tilted></feature>
            <threshold>-1.2586669623851776e-001</threshold>
            <left_val>5.2380949258804321e-001</left_val>
            <right_val>-6.0992062091827393e-001</right_val></_></_>
        <_>
          <!-- tree 1 -->
          <_>
            <!-- root node -->
            <feature>
              <rects>
                <_>
                  6 15 18 5 -1.</_>
                <_>
                  6 15 9 5 2.</_></rects>
              <tilted>0</tilted></feature>
            <threshold>-3.0116340145468712e-002</threshold>
            <left_val>4.6944890171289444e-002</left_val>
            <right_val>-2.5155609846115112e-001</right_val></_></_>
        <_>
          <!-- tree 2 -->
          <_>
            <!-- root node -->
            <feature>
              <rects>
                <_>
                  4 16 14 7 -1.</_>
                <_>
                  11 16 7 7 2.</_></rects>
              <tilted>0</tilted></feature>
            <threshold>1.9358439370989799e-002</threshold>
            <left_val>2.5190180540084839e-001</left_val>
            <right_val>-5.2041882276535034e-001</right_val></_></_>
        <_>
          <!-- tree 3 -->
          <_>
            <!-- root node -->
            <feature>
              <rects>
                <_>
                  9 18 6 6 -1.</_>
                <_>
                  11 18 2 6 3.</_></rects>
              <tilted>0</tilted></feature>
            <threshold>-1.1959689669311047e-002</threshold>
            <left_val>-6.7940419912338257e-001</left_val>
            <right_val>1.5636770427227020e-001</right_val></_></_>
        <_>
          <!-- tree 4 -->
          <_>
            <!-- root node -->
            <feature>
              <rects>
                <_>
                  0 1 6 5 -1.</_>
                <_>
                  3 1 3 5 2.</_></rects>
              <tilted>0</tilted></feature>
            <threshold>1.2056330218911171e-002</threshold>
            <left_val>1.0062780231237411e-001</left_val>
            <right_val>-6.2992072105407715e-001</right_val></_></_>
        <_>
          <!-- tree 5 -->
          <_>
            <!-- root node -->
            <feature>
              <rects>
                <_>
                  4 10 17 14 -1.</_>
                <_>
                  4 17 17 7 2.</_></rects>
              <tilted>0</tilted></feature>
            <threshold>1.9533020257949829e-001</threshold>
            <left_val>-1.2367469817399979e-001</left_val>
            <right_val>7.0333892107009888e-001</right_val></_></_>
        <_>
          <!-- tree 6 -->
          <_>
            <!-- root node -->
            <feature>
              <rects>
                <_>
                  9 3 6 20 -1.</_>
                <_>
                  9 13 6 10 2.</_></rects>
              <tilted>0</tilted></feature>
            <threshold>-1.9133390486240387e-001</threshold>
            <left_val>7.1153432130813599e-001</left_val>
            <right_val>-1.2857039272785187e-001</right_val></_></_>
        <_>
          <!-- tree 7 -->
          <_>
            <!-- root node -->
            <feature>
              <rects>
                <_>
                  16 7 5 2 -1.</_>
                <_>
                  16 8 5 1 2.</_></rects>
              <tilted>0</tilted></feature>
            <threshold>-3.9292449946515262e-004</threshold>
            <left_val>1.7914530634880066e-001</left_val>
            <right_val>-1.5215609967708588e-001</right_val></_></_>
        <_>
          <!-- tree 8 -->
          <_>
            <!-- root node -->
            <feature>
              <rects>
                <_>
                  3 6 8 4 -1.</_>
                <_>
                  3 6 4 2 2.</_>
                <_>
                  7 8 4 2 2.</_></rects>
              <tilted>0</tilted></feature>
            <threshold>1.0576279833912849e-002</threshold>
            <left_val>-1.3331249356269836e-001</left_val>
            <right_val>5.5120927095413208e-001</right_val></_></_>
        <_>
          <!-- tree 9 -->
          <_>
            <!-- root node -->
            <feature>
              <rects>
                <_>
                  0 13 24 1 -1.</_>
                <_>
                  8 13 8 1 3.</_></rects>
              <tilted>0</tilted></feature>
            <threshold>-2.9764780774712563e-002</threshold>
            <left_val>4.7209730744361877e-001</left_val>
            <right_val>-1.6646000742912292e-001</right_val></_></_>
        <_>
          <!-- tree 10 -->
          <_>
            <!-- root node -->
            <feature>
              <rects>
                <_>
                  8 12 8 6 -1.</_>
                <_>
                  8 15 8 3 2.</_></rects>
              <tilted>0</tilted></feature>
            <threshold>-3.5151969641447067e-002</threshold>
            <left_val>5.5513298511505127e-001</left_val>
            <right_val>-1.6411350667476654e-001</right_val></_></_>
        <_>
          <!-- tree 11 -->
          <_>
            <!-- root node -->
            <feature>
              <rects>
                <_>
                  15 18 6 4 -1.</_>
                <_>
                  17 18 2 4 3.</_></rects>
              <tilted>0</tilted></feature>
            <threshold>-1.9146090373396873e-002</threshold>
            <left_val>-5.4257392883300781e-001</left_val>
            <right_val>6.3927806913852692e-002</right_val></_></_>
        <_>
          <!-- tree 12 -->
          <_>
            <!-- root node -->
            <feature>
              <rects>
                <_>
                  8 14 8 9 -1.</_>
                <_>
                  8 17 8 3 3.</_></rects>
              <tilted>0</tilted></feature>
            <threshold>2.0865270867943764e-002</threshold>
            <left_val>-1.7750890552997589e-001</left_val>
            <right_val>4.6765708923339844e-001</right_val></_></_>
        <_>
          <!-- tree 13 -->
          <_>
            <!-- root node -->
            <feature>
              <rects>
                <_>
                  12 15 6 9 -1.</_>
                <_>
                  12 18 6 3 3.</_></rects>
              <tilted>0</tilted></feature>
            <threshold>-2.9733739793300629e-002</threshold>
            <left_val>4.1810229420661926e-001</left_val>
            <right_val>-9.0329721570014954e-002</right_val></_></_>
        <_>
          <!-- tree 14 -->
          <_>
            <!-- root node -->
            <feature>
              <rects>
                <_>
                  3 7 6 2 -1.</_>
                <_>
                  3 8 6 1 2.</_></rects>
              <tilted>0</tilted></feature>
            <threshold>-8.0229312879964709e-004</threshold>
            <left_val>3.0999431014060974e-001</left_val>
            <right_val>-2.5317651033401489e-001</right_val></_></_>
        <_>
          <!-- tree 15 -->
          <_>
            <!-- root node -->
            <feature>
              <rects>
                <_>
                  2 18 22 6 -1.</_>
                <_>
                  2 21 22 3 2.</_></rects>
              <tilted>0</tilted></feature>
            <threshold>-4.5078970491886139e-002</threshold>
            <left_val>4.6201959252357483e-001</left_val>
            <right_val>-1.2389379739761353e-001</right_val></_></_></trees>
      <stage_threshold>-1.3811949491500854e+000</stage_threshold>
      <parent>1</parent>
      <next>-1</next></_>
    <_>
      <!-- stage 3 -->
      <trees>
        <_>
          <!-- tree 0 -->
          <_>
            <!-- root node -->
            <feature>
              <rects>
                <_>
                  7 0 8 18 -1.</_>
                <_>
                  7 6 8 6 3.</_></rects>
              <tilted>0</tilted></feature>
            <threshold>2.1961340308189392e-001</threshold>
            <left_val>-5.7294410467147827e-001</left_val>
            <right_val>3.5632398724555969e-001</right_val></_></_>
        <_>
          <!-- tree 1 -->
          <_>
            <!-- root node -->
            <feature>
              <rects>
                <_>
                  12 13 10 8 -1.</_>
                <_>
                  12 13 5 8 2.</_></rects>
              <tilted>0</tilted></feature>
            <threshold>-2.8625620529055595e-002</threshold>
            <left_val>1.0199280083179474e-001</left_val>
            <right_val>-2.6163190603256226e-001</right_val></_></_>
        <_>
          <!-- tree 2 -->
          <_>
            <!-- root node -->
            <feature>
              <rects>
                <_>
                  1 0 1 14 -1.</_>
                <_>
                  1 7 1 7 2.</_></rects>
              <tilted>0</tilted></feature>
            <threshold>-2.1494859829545021e-002</threshold>
            <left_val>-8.8104748725891113e-001</left_val>
            <right_val>7.0092476904392242e-002</right_val></_></_>
        <_>
          <!-- tree 3 -->
          <_>
            <!-- root node -->
            <feature>
              <rects>
                <_>
                  2 1 21 8 -1.</_>
                <_>
                  2 5 21 4 2.</_></rects>
              <tilted>0</tilted></feature>
            <threshold>-6.7683570086956024e-002</threshold>
            <left_val>4.2786291241645813e-001</left_val>
            <right_val>-1.5423089265823364e-001</right_val></_></_>
        <_>
          <!-- tree 4 -->
          <_>
            <!-- root node -->
            <feature>
              <rects>
                <_>
                  6 0 12 10 -1.</_>
                <_>
                  10 0 4 10 3.</_></rects>
              <tilted>0</tilted></feature>
            <threshold>2.8670819476246834e-002</threshold>
            <left_val>-1.9830979406833649e-001</left_val>
            <right_val>3.3925691246986389e-001</right_val></_></_>
        <_>
          <!-- tree 5 -->
          <_>
            <!-- root node -->
            <feature>
              <rects>
                <_>
                  13 21 3 3 -1.</_>
                <_>
                  14 21 1 3 3.</_></rects>
              <tilted>0</tilted></feature>
            <threshold>1.6820159507915378e-003</threshold>
            <left_val>5.9620678424835205e-002</left_val>
            <right_val>-4.9028658866882324e-001</right_val></_></_>
        <_>
          <!-- tree 6 -->
          <_>
            <!-- root node -->
            <feature>
              <rects>
                <_>
                  2 12 10 8 -1.</_>
                <_>
                  7 12 5 8 2.</_></rects>
              <tilted>0</tilted></feature>
            <threshold>-1.9986189901828766e-002</threshold>
            <left_val>2.4200589954853058e-001</left_val>
            <right_val>-2.6455470919609070e-001</right_val></_></_>
        <_>
          <!-- tree 7 -->
          <_>
            <!-- root node -->
            <feature>
              <rects>
                <_>
                  11 23 6 1 -1.</_>
                <_>
                  13 23 2 1 3.</_></rects>
              <tilted>0</tilted></feature>
            <threshold>-6.8566499976441264e-004</threshold>
            <left_val>-2.6214158535003662e-001</left_val>
            <right_val>1.0231269896030426e-001</right_val></_></_>
        <_>
          <!-- tree 8 -->
          <_>
            <!-- root node -->
            <feature>
              <rects>
                <_>
                  7 23 6 1 -1.</_>
                <_>
                  9 23 2 1 3.</_></rects>
              <tilted>0</tilted></feature>
            <threshold>-1.3053669827058911e-003</threshold>
            <left_val>-4.5692560076713562e-001</left_val>
            <right_val>1.3142220675945282e-001</right_val></_></_>
        <_>
          <!-- tree 9 -->
          <_>
            <!-- root node -->
            <feature>
              <rects>
                <_>
                  16 19 8 4 -1.</_>
                <_>
                  20 19 4 2 2.</_>
                <_>
                  16 21 4 2 2.</_></rects>
              <tilted>0</tilted></feature>
            <threshold>8.6680389940738678e-003</threshold>
            <left_val>-1.0262019932270050e-001</left_val>
            <right_val>3.4453019499778748e-001</right_val></_></_>
        <_>
          <!-- tree 10 -->
          <_>
            <!-- root node -->
            <feature>
              <rects>
                <_>
                  8 17 1 3 -1.</_>
                <_>
                  8 18 1 1 3.</_></rects>
              <tilted>0</tilted></feature>
            <threshold>-1.7673199763521552e-003</threshold>
            <left_val>6.5093171596527100e-001</left_val>
            <right_val>-8.9179806411266327e-002</right_val></_></_>
        <_>
          <!-- tree 11 -->
          <_>
            <!-- root node -->
            <feature>
              <rects>
                <_>
                  11 13 10 2 -1.</_>
                <_>
                  16 13 5 1 2.</_>
                <_>
                  11 14 5 1 2.</_></rects>
              <tilted>0</tilted></feature>
            <threshold>9.7139570862054825e-003</threshold>
            <left_val>-3.7203188985586166e-002</left_val>
            <right_val>6.4501512050628662e-001</right_val></_></_>
        <_>
          <!-- tree 12 -->
          <_>
            <!-- root node -->
            <feature>
              <rects>
                <_>
                  0 21 3 2 -1.</_>
                <_>
                  0 22 3 1 2.</_></rects>
              <tilted>0</tilted></feature>
            <threshold>-3.6238349275663495e-004</threshold>
            <left_val>2.7131840586662292e-001</left_val>
            <right_val>-1.9237190485000610e-001</right_val></_></_>
        <_>
          <!-- tree 13 -->
          <_>
            <!-- root node -->
            <feature>
              <rects>
                <_>
                  0 10 24 6 -1.</_>
                <_>
                  12 10 12 3 2.</_>
                <_>
                  0 13 12 3 2.</_></rects>
              <tilted>0</tilted></feature>
            <threshold>3.3483058214187622e-002</threshold>
            <left_val>8.5825592279434204e-002</left_val>
            <right_val>-5.6927418708801270e-001</right_val></_></_>
        <_>
          <!-- tree 14 -->
          <_>
            <!-- root node -->
            <feature>
              <rects>
                <_>
                  3 8 18 8 -1.</_>
                <_>
                  3 8 9 4 2.</_>
                <_>
                  12 12 9 4 2.</_></rects>
              <tilted>0</tilted></feature>
            <threshold>3.1661741435527802e-002</threshold>
            <left_val>1.3693830370903015e-001</left_val>
            <right_val>-4.5149040222167969e-001</right_val></_></_>
        <_>
          <!-- tree 15 -->
          <_>
            <!-- root node -->
            <feature>
              <rects>
                <_>
                  11 12 3 6 -1.</_>
                <_>
                  11 14 3 2 3.</_></rects>
              <tilted>0</tilted></feature>
            <threshold>-6.6541619598865509e-003</threshold>
            <left_val>2.2876420617103577e-001</left_val>
            <right_val>-1.7173899710178375e-001</right_val></_></_>
        <_>
          <!-- tree 16 -->
          <_>
            <!-- root node -->
            <feature>
              <rects>
                <_>
                  5 15 8 2 -1.</_>
                <_>
                  5 15 4 1 2.</_>
                <_>
                  9 16 4 1 2.</_></rects>
              <tilted>0</tilted></feature>
            <threshold>-3.5089729353785515e-003</threshold>
            <left_val>4.8930099606513977e-001</left_val>
            <right_val>-1.2644389271736145e-001</right_val></_></_>
        <_>
          <!-- tree 17 -->
          <_>
            <!-- root node -->
            <feature>
              <rects>
                <_>
                  11 2 8 4 -1.</_>
                <_>
                  15 2 4 2 2.</_>
                <_>
                  11 4 4 2 2.</_></rects>
              <tilted>0</tilted></feature>
            <threshold>-9.6907755360007286e-003</threshold>
            <left_val>2.6535838842391968e-001</left_val>
            <right_val>-4.6849939972162247e-002</right_val></_></_>
        <_>
          <!-- tree 18 -->
          <_>
            <!-- root node -->
            <feature>
              <rects>
                <_>
                  0 14 4 6 -1.</_>
                <_>
                  0 16 4 2 3.</_></rects>
              <tilted>0</tilted></feature>
            <threshold>-3.2897070050239563e-003</threshold>
            <left_val>3.1439179182052612e-001</left_val>
            <right_val>-1.6107539832592010e-001</right_val></_></_></trees>
      <stage_threshold>-1.1255379915237427e+000</stage_threshold>
      <parent>2</parent>
      <next>-1</next></_>
    <_>
      <!-- stage 4 -->
      <trees>
        <_>
          <!-- tree 0 -->
          <_>
            <!-- root node -->
            <feature>
              <rects>
                <_>
                  8 4 8 18 -1.</_>
                <_>
                  8 13 8 9 2.</_></rects>
              <tilted>0</tilted></feature>
            <threshold>-2.8910771012306213e-001</threshold>
            <left_val>8.8571429252624512e-001</left_val>
            <right_val>-5.4309231042861938e-001</right_val></_></_>
        <_>
          <!-- tree 1 -->
          <_>
            <!-- root node -->
            <feature>
              <rects>
                <_>
                  9 5 7 18 -1.</_>
                <_>
                  9 11 7 6 3.</_></rects>
              <tilted>0</tilted></feature>
            <threshold>-2.2285890579223633e-001</threshold>
            <left_val>6.5865808725357056e-001</left_val>
            <right_val>-1.5241900086402893e-001</right_val></_></_>
        <_>
          <!-- tree 2 -->
          <_>
            <!-- root node -->
            <feature>
              <rects>
                <_>
                  10 10 3 11 -1.</_>
                <_>
                  11 10 1 11 3.</_></rects>
              <tilted>0</tilted></feature>
            <threshold>-4.6784607693552971e-003</threshold>
            <left_val>-6.5728908777236938e-001</left_val>
            <right_val>1.0673259943723679e-001</right_val></_></_>
        <_>
          <!-- tree 3 -->
          <_>
            <!-- root node -->
            <feature>
              <rects>
                <_>
                  0 0 24 23 -1.</_>
                <_>
                  8 0 8 23 3.</_></rects>
              <tilted>0</tilted></feature>
            <threshold>-4.0955290198326111e-001</threshold>
            <left_val>4.2298358678817749e-001</left_val>
            <right_val>-1.4123159646987915e-001</right_val></_></_>
        <_>
          <!-- tree 4 -->
          <_>
            <!-- root node -->
            <feature>
              <rects>
                <_>
                  0 8 9 7 -1.</_>
                <_>
                  3 8 3 7 3.</_></rects>
              <tilted>0</tilted></feature>
            <threshold>-4.5950848609209061e-002</threshold>
            <left_val>5.9543520212173462e-001</left_val>
            <right_val>-6.0771930962800980e-002</right_val></_></_>
        <_>
          <!-- tree 5 -->
          <_>
            <!-- root node -->
            <feature>
              <rects>
                <_>
                  9 14 6 3 -1.</_>
                <_>
                  11 14 2 3 3.</_></rects>
              <tilted>0</tilted></feature>
            <threshold>8.0100186169147491e-003</threshold>
            <left_val>8.2597620785236359e-002</left_val>
            <right_val>-6.9523739814758301e-001</right_val></_></_>
        <_>
          <!-- tree 6 -->
          <_>
            <!-- root node -->
            <feature>
              <rects>
                <_>
                  3 3 18 7 -1.</_>
                <_>
                  12 3 9 7 2.</_></rects>
              <tilted>0</tilted></feature>
            <threshold>1.0136549919843674e-001</threshold>
            <left_val>6.2702476978302002e-002</left_val>
            <right_val>-7.6782160997390747e-001</right_val></_></_>
        <_>
          <!-- tree 7 -->
          <_>
            <!-- root node -->
            <feature>
              <rects>
                <_>
                  9 1 14 8 -1.</_>
                <_>
                  9 1 7 8 2.</_></rects>
              <tilted>0</tilted></feature>
            <threshold>1.5325279533863068e-001</threshold>
            <left_val>1.1075310409069061e-002</left_val>
            <right_val>-7.4904817342758179e-001</right_val></_></_>
        <_>
          <!-- tree 8 -->
          <_>
            <!-- root node -->
            <feature>
              <rects>
                <_>
                  1 1 14 8 -1.</_>
                <_>
                  8 1 7 8 2.</_></rects>
              <tilted>0</tilted></feature>
            <threshold>4.2542759329080582e-002</threshold>
            <left_val>-2.0126900076866150e-001</left_val>
            <right_val>4.3540439009666443e-001</right_val></_></_>
        <_>
          <!-- tree 9 -->
          <_>
            <!-- root node -->
            <feature>
              <rects>
                <_>
                  8 3 16 4 -1.</_>
                <_>
                  16 3 8 2 2.</_>
                <_>
                  8 5 8 2 2.</_></rects>
              <tilted>0</tilted></feature>
            <threshold>1.2830480001866817e-002</threshold>
            <left_val>-5.4043300449848175e-002</left_val>
            <right_val>2.7393940091133118e-001</right_val></_></_>
        <_>
          <!-- tree 10 -->
          <_>
            <!-- root node -->
            <feature>
              <rects>
                <_>
                  0 3 16 4 -1.</_>
                <_>
                  0 3 8 2 2.</_>
                <_>
                  8 5 8 2 2.</_></rects>
              <tilted>0</tilted></feature>
            <threshold>-1.2741919606924057e-002</threshold>
            <left_val>4.7487148642539978e-001</left_val>
            <right_val>-1.8245689570903778e-001</right_val></_></_>
        <_>
          <!-- tree 11 -->
          <_>
            <!-- root node -->
            <feature>
              <rects>
                <_>
                  13 18 3 6 -1.</_>
                <_>
                  14 18 1 6 3.</_></rects>
              <tilted>0</tilted></feature>
            <threshold>2.7061048895120621e-003</threshold>
            <left_val>3.5580080002546310e-002</left_val>
            <right_val>-2.5585699081420898e-001</right_val></_></_>
        <_>
          <!-- tree 12 -->
          <_>
            <!-- root node -->
            <feature>
              <rects>
                <_>
                  8 3 8 12 -1.</_>
                <_>
                  8 9 8 6 2.</_></rects>
              <tilted>0</tilted></feature>
            <threshold>1.0792019963264465e-001</threshold>
            <left_val>-7.0391759276390076e-002</left_val>
            <right_val>7.9495257139205933e-001</right_val></_></_>
        <_>
          <!-- tree 13 -->
          <_>
            <!-- root node -->
            <feature>
              <rects>
                <_>
                  9 14 14 8 -1.</_>
                <_>
                  16 14 7 4 2.</_>
                <_>
                  9 18 7 4 2.</_></rects>
              <tilted>0</tilted></feature>
            <threshold>-5.3467441350221634e-002</threshold>
            <left_val>4.4629031419754028e-001</left_val>
            <right_val>-9.1122174635529518e-003</right_val></_></_>
        <_>
          <!-- tree 14 -->
          <_>
            <!-- root node -->
            <feature>
              <rects>
                <_>
                  1 14 14 8 -1.</_>
                <_>
                  1 14 7 4 2.</_>
                <_>
                  8 18 7 4 2.</_></rects>
              <tilted>0</tilted></feature>
            <threshold>3.8063600659370422e-002</threshold>
            <left_val>-1.7106489837169647e-001</left_val>
            <right_val>4.1978290677070618e-001</right_val></_></_>
        <_>
          <!-- tree 15 -->
          <_>
            <!-- root node -->
            <feature>
              <rects>
                <_>
                  17 7 6 11 -1.</_>
                <_>
                  19 7 2 11 3.</_></rects>
              <tilted>0</tilted></feature>
            <threshold>6.3978329300880432e-002</threshold>
            <left_val>2.5102889165282249e-002</left_val>
            <right_val>-9.4598060846328735e-001</right_val></_></_>
        <_>
          <!-- tree 16 -->
          <_>
            <!-- root node -->
            <feature>
              <rects>
                <_>
                  1 7 6 11 -1.</_>
                <_>
                  3 7 2 11 3.</_></rects>
              <tilted>0</tilted></feature>
            <threshold>3.0297569930553436e-002</threshold>
            <left_val>-1.1595720052719116e-001</left_val>
            <right_val>5.4200851917266846e-001</right_val></_></_>
        <_>
          <!-- tree 17 -->
          <_>
            <!-- root node -->
            <feature>
              <rects>
                <_>
                  12 7 2 6 -1.</_>
                <_>
                  12 10 2 3 2.</_></rects>
              <tilted>0</tilted></feature>
            <threshold>-6.8815081613138318e-004</threshold>
            <left_val>1.2765009701251984e-001</left_val>
            <right_val>-2.3839659988880157e-001</right_val></_></_></trees>
      <stage_threshold>-1.0864030122756958e+000</stage_threshold>
      <parent>3</parent>
      <next>-1</next></_>
    <_>
      <!-- stage 5 -->
      <trees>
        <_>
          <!-- tree 0 -->
          <_>
            <!-- root node -->
            <feature>
              <rects>
                <_>
                  7 6 7 16 -1.</_>
                <_>
                  7 14 7 8 2.</_></rects>
              <tilted>0</tilted></feature>
            <threshold>-2.3393850028514862e-001</threshold>
            <left_val>8.0645161867141724e-001</left_val>
            <right_val>-5.3493607044219971e-001</right_val></_></_>
        <_>
          <!-- tree 1 -->
          <_>
            <!-- root node -->
            <feature>
              <rects>
                <_>
                  15 19 3 5 -1.</_>
                <_>
                  16 19 1 5 3.</_></rects>
              <tilted>0</tilted></feature>
            <threshold>-5.3815678693354130e-003</threshold>
            <left_val>-6.5190511941909790e-001</left_val>
            <right_val>-2.6315109804272652e-002</right_val></_></_>
        <_>
          <!-- tree 2 -->
          <_>
            <!-- root node -->
            <feature>
              <rects>
                <_>
                  0 9 6 4 -1.</_>
                <_>
                  0 11 6 2 2.</_></rects>
              <tilted>0</tilted></feature>
            <threshold>-1.3067710213363171e-002</threshold>
            <left_val>-7.6578992605209351e-001</left_val>
            <right_val>1.0702259838581085e-001</right_val></_></_>
        <_>
          <!-- tree 3 -->
          <_>
            <!-- root node -->
            <feature>
              <rects>
                <_>
                  2 8 20 4 -1.</_>
                <_>
                  12 8 10 2 2.</_>
                <_>
                  2 10 10 2 2.</_></rects>
              <tilted>0</tilted></feature>
            <threshold>1.9144250079989433e-002</threshold>
            <left_val>1.0270559787750244e-001</left_val>
            <right_val>-5.9010958671569824e-001</right_val></_></_>
        <_>
          <!-- tree 4 -->
          <_>
            <!-- root node -->
            <feature>
              <rects>
                <_>
                  0 6 20 8 -1.</_>
                <_>
                  0 10 20 4 2.</_></rects>
              <tilted>0</tilted></feature>
            <threshold>-1.0197989642620087e-001</threshold>
            <left_val>4.2685911059379578e-001</left_val>
            <right_val>-1.5063990652561188e-001</right_val></_></_>
        <_>
          <!-- tree 5 -->
          <_>
            <!-- root node -->
            <feature>
              <rects>
                <_>
                  4 0 16 4 -1.</_>
                <_>
                  12 0 8 2 2.</_>
                <_>
                  4 2 8 2 2.</_></rects>
              <tilted>0</tilted></feature>
            <threshold>1.2430249713361263e-002</threshold>
            <left_val>7.0843823254108429e-002</left_val>
            <right_val>-6.1742448806762695e-001</right_val></_></_>
        <_>
          <!-- tree 6 -->
          <_>
            <!-- root node -->
            <feature>
              <rects>
                <_>
                  3 17 6 6 -1.</_>
                <_>
                  5 17 2 6 3.</_></rects>
              <tilted>0</tilted></feature>
            <threshold>1.4353849925100803e-002</threshold>
            <left_val>9.1627009212970734e-002</left_val>
            <right_val>-5.9310692548751831e-001</right_val></_></_>
        <_>
          <!-- tree 7 -->
          <_>
            <!-- root node -->
            <feature>
              <rects>
                <_>
                  13 17 8 4 -1.</_>
                <_>
                  17 17 4 2 2.</_>
                <_>
                  13 19 4 2 2.</_></rects>
              <tilted>0</tilted></feature>
            <threshold>-7.1158381178975105e-003</threshold>
            <left_val>4.0841650962829590e-001</left_val>
            <right_val>-8.6133442819118500e-002</right_val></_></_>
        <_>
          <!-- tree 8 -->
          <_>
            <!-- root node -->
            <feature>
              <rects>
                <_>
                  3 0 16 1 -1.</_>
                <_>
                  11 0 8 1 2.</_></rects>
              <tilted>0</tilted></feature>
            <threshold>-1.4468099921941757e-002</threshold>
            <left_val>-6.8558287620544434e-001</left_val>
            <right_val>7.9407736659049988e-002</right_val></_></_>
        <_>
          <!-- tree 9 -->
          <_>
            <!-- root node -->
            <feature>
              <rects>
                <_>
                  3 1 18 6 -1.</_>
                <_>
                  3 1 9 6 2.</_></rects>
              <tilted>0</tilted></feature>
            <threshold>-4.8316329717636108e-002</threshold>
            <left_val>-4.9193310737609863e-001</left_val>
            <right_val>1.0425669699907303e-001</right_val></_></_>
        <_>
          <!-- tree 10 -->
          <_>
            <!-- root node -->
            <feature>
              <rects>
                <_>
                  11 15 2 6 -1.</_>
                <_>
                  12 15 1 6 2.</_></rects>
              <tilted>0</tilted></feature>
            <threshold>-4.7367671504616737e-003</threshold>
            <left_val>-8.3769959211349487e-001</left_val>
            <right_val>5.2483931183815002e-002</right_val></_></_>
        <_>
          <!-- tree 11 -->
          <_>
            <!-- root node -->
            <feature>
              <rects>
                <_>
                  1 17 23 3 -1.</_>
                <_>
                  1 18 23 1 3.</_></rects>
              <tilted>0</tilted></feature>
            <threshold>6.9674029946327209e-003</threshold>
            <left_val>-1.6317999362945557e-001</left_val>
            <right_val>3.2405731081962585e-001</right_val></_></_>
        <_>
          <!-- tree 12 -->
          <_>
            <!-- root node -->
            <feature>
              <rects>
                <_>
                  4 19 4 2 -1.</_>
                <_>
                  4 19 2 1 2.</_>
                <_>
                  6 20 2 1 2.</_></rects>
              <tilted>0</tilted></feature>
            <threshold>1.7531249905005097e-003</threshold>
            <left_val>-1.0203690081834793e-001</left_val>
            <right_val>4.7096911072731018e-001</right_val></_></_>
        <_>
          <!-- tree 13 -->
          <_>
            <!-- root node -->
            <feature>
              <rects>
                <_>
                  17 1 3 4 -1.</_>
                <_>
                  18 1 1 4 3.</_></rects>
              <tilted>0</tilted></feature>
            <threshold>-5.7471701875329018e-003</threshold>
            <left_val>-5.0971037149429321e-001</left_val>
            <right_val>2.8629789128899574e-002</right_val></_></_>
        <_>
          <!-- tree 14 -->
          <_>
            <!-- root node -->
            <feature>
              <rects>
                <_>
                  4 1 3 4 -1.</_>
                <_>
                  5 1 1 4 3.</_></rects>
              <tilted>0</tilted></feature>
            <threshold>-2.6278940495103598e-003</threshold>
            <left_val>-6.2287598848342896e-001</left_val>
            <right_val>8.8801361620426178e-002</right_val></_></_>
        <_>
          <!-- tree 15 -->
          <_>
            <!-- root node -->
            <feature>
              <rects>
                <_>
                  13 2 2 6 -1.</_>
                <_>
                  13 2 1 6 2.</_></rects>
              <tilted>0</tilted></feature>
            <threshold>-5.7307798415422440e-003</threshold>
            <left_val>-6.9750148057937622e-001</left_val>
            <right_val>1.4072770252823830e-002</right_val></_></_>
        <_>
          <!-- tree 16 -->
          <_>
            <!-- root node -->
            <feature>
              <rects>
                <_>
                  9 2 2 6 -1.</_>
                <_>
                  10 2 1 6 2.</_></rects>
              <tilted>0</tilted></feature>
            <threshold>6.1753258341923356e-004</threshold>
            <left_val>-2.0650610327720642e-001</left_val>
            <right_val>2.5125950574874878e-001</right_val></_></_>
        <_>
          <!-- tree 17 -->
          <_>
            <!-- root node -->
            <feature>
              <rects>
                <_>
                  11 0 3 7 -1.</_>
                <_>
                  12 0 1 7 3.</_></rects>
              <tilted>0</tilted></feature>
            <threshold>1.2313960120081902e-002</threshold>
            <left_val>-2.6049850508570671e-002</left_val>
            <right_val>5.7866442203521729e-001</right_val></_></_>
        <_>
          <!-- tree 18 -->
          <_>
            <!-- root node -->
            <feature>
              <rects>
                <_>
                  10 0 3 7 -1.</_>
                <_>
                  11 0 1 7 3.</_></rects>
              <tilted>0</tilted></feature>
            <threshold>-1.8846370221581310e-004</threshold>
            <left_val>2.7493739128112793e-001</left_val>
            <right_val>-2.0900879800319672e-001</right_val></_></_>
        <_>
          <!-- tree 19 -->
          <_>
            <!-- root node -->
            <feature>
              <rects>
                <_>
                  7 12 10 3 -1.</_>
                <_>
                  7 13 10 1 3.</_></rects>
              <tilted>0</tilted></feature>
            <threshold>-7.6842717826366425e-003</threshold>
            <left_val>4.7036808729171753e-001</left_val>
            <right_val>-1.1001549661159515e-001</right_val></_></_>
        <_>
          <!-- tree 20 -->
          <_>
            <!-- root node -->
            <feature>
              <rects>
                <_>
                  1 12 21 1 -1.</_>
                <_>
                  8 12 7 1 3.</_></rects>
              <tilted>0</tilted></feature>
            <threshold>-4.4935990124940872e-002</threshold>
            <left_val>6.9591188430786133e-001</left_val>
            <right_val>-7.1275092661380768e-002</right_val></_></_>
        <_>
          <!-- tree 21 -->
          <_>
            <!-- root node -->
            <feature>
              <rects>
                <_>
                  13 17 8 4 -1.</_>
                <_>
                  17 17 4 2 2.</_>
                <_>
                  13 19 4 2 2.</_></rects>
              <tilted>0</tilted></feature>
            <threshold>6.1641070060431957e-003</threshold>
            <left_val>-9.5831699669361115e-002</left_val>
            <right_val>2.2123019397258759e-001</right_val></_></_>
        <_>
          <!-- tree 22 -->
          <_>
            <!-- root node -->
            <feature>
              <rects>
                <_>
                  0 10 9 8 -1.</_>
                <_>
                  3 10 3 8 3.</_></rects>
              <tilted>0</tilted></feature>
            <threshold>-6.1153508722782135e-002</threshold>
            <left_val>7.1737331151962280e-001</left_val>
            <right_val>-8.6416587233543396e-002</right_val></_></_>
        <_>
          <!-- tree 23 -->
          <_>
            <!-- root node -->
            <feature>
              <rects>
                <_>
                  8 19 8 2 -1.</_>
                <_>
                  8 19 4 2 2.</_></rects>
              <tilted>0</tilted></feature>
            <threshold>3.7706599105149508e-003</threshold>
            <left_val>1.4348870515823364e-001</left_val>
            <right_val>-4.0717700123786926e-001</right_val></_></_></trees>
      <stage_threshold>-1.3542330265045166e+000</stage_threshold>
      <parent>4</parent>
      <next>-1</next></_>
    <_>
      <!-- stage 6 -->
      <trees>
        <_>
          <!-- tree 0 -->
          <_>
            <!-- root node -->
            <feature>
              <rects>
                <_>
                  6 9 11 2 -1.</_>
                <_>
                  6 10 11 1 2.</_></rects>
              <tilted>0</tilted></feature>
            <threshold>-4.9715992063283920e-003</threshold>
            <left_val>-2.0900270342826843e-001</left_val>
            <right_val>-6.1773800849914551e-001</right_val></_></_>
        <_>
          <!-- tree 1 -->
          <_>
            <!-- root node -->
            <feature>
              <rects>
                <_>
                  0 13 24 2 -1.</_>
                <_>
                  0 13 12 2 2.</_></rects>
              <tilted>0</tilted></feature>
            <threshold>3.6669399589300156e-002</threshold>
            <left_val>2.9803829267621040e-002</left_val>
            <right_val>-6.8276089429855347e-001</right_val></_></_>
        <_>
          <!-- tree 2 -->
          <_>
            <!-- root node -->
            <feature>
              <rects>
                <_>
                  0 14 18 1 -1.</_>
                <_>
                  9 14 9 1 2.</_></rects>
              <tilted>0</tilted></feature>
            <threshold>-9.7282743081450462e-003</threshold>
            <left_val>2.7456641197204590e-001</left_val>
            <right_val>-1.9201099872589111e-001</right_val></_></_>
        <_>
          <!-- tree 3 -->
          <_>
            <!-- root node -->
            <feature>
              <rects>
                <_>
                  10 11 14 3 -1.</_>
                <_>
                  10 11 7 3 2.</_></rects>
              <tilted>0</tilted></feature>
            <threshold>5.7846691459417343e-002</threshold>
            <left_val>-9.1800600290298462e-002</left_val>
            <right_val>6.4261800050735474e-001</right_val></_></_>
        <_>
          <!-- tree 4 -->
          <_>
            <!-- root node -->
            <feature>
              <rects>
                <_>
                  8 21 3 3 -1.</_>
                <_>
                  9 21 1 3 3.</_></rects>
              <tilted>0</tilted></feature>
            <threshold>-1.2813189532607794e-003</threshold>
            <left_val>-5.3358757495880127e-001</left_val>
            <right_val>1.4103539288043976e-001</right_val></_></_>
        <_>
          <!-- tree 5 -->
          <_>
            <!-- root node -->
            <feature>
              <rects>
                <_>
                  14 0 10 1 -1.</_>
                <_>
                  14 0 5 1 2.</_></rects>
              <tilted>0</tilted></feature>
            <threshold>-9.4325039535760880e-003</threshold>
            <left_val>-6.9242590665817261e-001</left_val>
            <right_val>2.5003729388117790e-002</right_val></_></_>
        <_>
          <!-- tree 6 -->
          <_>
            <!-- root node -->
            <feature>
              <rects>
                <_>
                  1 5 1 18 -1.</_>
                <_>
                  1 14 1 9 2.</_></rects>
              <tilted>0</tilted></feature>
            <threshold>-1.7878010869026184e-002</threshold>
            <left_val>-5.4703748226165771e-001</left_val>
            <right_val>1.0621690005064011e-001</right_val></_></_>
        <_>
          <!-- tree 7 -->
          <_>
            <!-- root node -->
            <feature>
              <rects>
                <_>
                  2 7 20 14 -1.</_>
                <_>
                  12 7 10 7 2.</_>
                <_>
                  2 14 10 7 2.</_></rects>
              <tilted>0</tilted></feature>
            <threshold>1.0322050005197525e-001</threshold>
            <left_val>5.6407429277896881e-002</left_val>
            <right_val>-7.6902842521667480e-001</right_val></_></_>
        <_>
          <!-- tree 8 -->
          <_>
            <!-- root node -->
            <feature>
              <rects>
                <_>
                  0 0 10 1 -1.</_>
                <_>
                  5 0 5 1 2.</_></rects>
              <tilted>0</tilted></feature>
            <threshold>-4.7414777800440788e-003</threshold>
            <left_val>-5.4784160852432251e-001</left_val>
            <right_val>8.8285617530345917e-002</right_val></_></_>
        <_>
          <!-- tree 9 -->
          <_>
            <!-- root node -->
            <feature>
              <rects>
                <_>
                  11 9 6 2 -1.</_>
                <_>
                  11 9 3 2 2.</_></rects>
              <tilted>0</tilted></feature>
            <threshold>4.3120930786244571e-004</threshold>
            <left_val>-1.7939989268779755e-001</left_val>
            <right_val>1.6806550323963165e-001</right_val></_></_>
        <_>
          <!-- tree 10 -->
          <_>
            <!-- root node -->
            <feature>
              <rects>
                <_>
                  6 10 12 10 -1.</_>
                <_>
                  6 10 6 5 2.</_>
                <_>
                  12 15 6 5 2.</_></rects>
              <tilted>0</tilted></feature>
            <threshold>4.4938478618860245e-002</threshold>
            <left_val>7.9214893281459808e-002</left_val>
            <right_val>-5.7420337200164795e-001</right_val></_></_>
        <_>
          <!-- tree 11 -->
          <_>
            <!-- root node -->
            <feature>
              <rects>
                <_>
                  11 8 2 2 -1.</_>
                <_>
                  11 9 2 1 2.</_></rects>
              <tilted>0</tilted></feature>
            <threshold>7.2262097091879696e-005</threshold>
            <left_val>1.4587490260601044e-001</left_val>
            <right_val>-3.0425089597702026e-001</right_val></_></_>
        <_>
          <!-- tree 12 -->
          <_>
            <!-- root node -->
            <feature>
              <rects>
                <_>
                  0 7 9 16 -1.</_>
                <_>
                  0 15 9 8 2.</_></rects>
              <tilted>0</tilted></feature>
            <threshold>-1.0138209909200668e-001</threshold>
            <left_val>3.9090171456336975e-001</left_val>
            <right_val>-1.2836149334907532e-001</right_val></_></_>
        <_>
          <!-- tree 13 -->
          <_>
            <!-- root node -->
            <feature>
              <rects>
                <_>
                  2 19 22 2 -1.</_>
                <_>
                  2 20 22 1 2.</_></rects>
              <tilted>0</tilted></feature>
            <threshold>9.3869231641292572e-003</threshold>
            <left_val>-1.1746300011873245e-001</left_val>
            <right_val>4.1842371225357056e-001</right_val></_></_>
        <_>
          <!-- tree 14 -->
          <_>
            <!-- root node -->
            <feature>
              <rects>
                <_>
                  5 6 6 16 -1.</_>
                <_>
                  7 6 2 16 3.</_></rects>
              <tilted>0</tilted></feature>
            <threshold>-1.1927209794521332e-002</threshold>
            <left_val>2.9897779226303101e-001</left_val>
            <right_val>-1.8564680218696594e-001</right_val></_></_>
        <_>
          <!-- tree 15 -->
          <_>
            <!-- root node -->
            <feature>
              <rects>
                <_>
                  11 10 12 8 -1.</_>
                <_>
                  17 10 6 4 2.</_>
                <_>
                  11 14 6 4 2.</_></rects>
              <tilted>0</tilted></feature>
            <threshold>-6.1925180256366730e-002</threshold>
            <left_val>4.5868891477584839e-001</left_val>
            <right_val>-7.2945691645145416e-002</right_val></_></_>
        <_>
          <!-- tree 16 -->
          <_>
            <!-- root node -->
            <feature>
              <rects>
                <_>
                  4 11 1 4 -1.</_>
                <_>
                  4 13 1 2 2.</_></rects>
              <tilted>0</tilted></feature>
            <threshold>-2.3880531080067158e-003</threshold>
            <left_val>-5.8186322450637817e-001</left_val>
            <right_val>1.0311350226402283e-001</right_val></_></_>
        <_>
          <!-- tree 17 -->
          <_>
            <!-- root node -->
            <feature>
              <rects>
                <_>
                  20 15 4 9 -1.</_>
                <_>
                  20 15 2 9 2.</_></rects>
              <tilted>0</tilted></feature>
            <threshold>-8.4246061742305756e-003</threshold>
            <left_val>1.9346289336681366e-001</left_val>
            <right_val>-9.9827848374843597e-002</right_val></_></_>
        <_>
          <!-- tree 18 -->
          <_>
            <!-- root node -->
            <feature>
              <rects>
                <_>
                  0 7 24 9 -1.</_>
                <_>
                  12 7 12 9 2.</_></rects>
              <tilted>0</tilted></feature>
            <threshold>-1.7310230433940887e-001</threshold>
            <left_val>-8.1151461601257324e-001</left_val>
            <right_val>6.2960878014564514e-002</right_val></_></_>
        <_>
          <!-- tree 19 -->
          <_>
            <!-- root node -->
            <feature>
              <rects>
                <_>
                  18 15 6 8 -1.</_>
                <_>
                  20 15 2 8 3.</_></rects>
              <tilted>0</tilted></feature>
            <threshold>9.1939959675073624e-003</threshold>
            <left_val>-1.3194690644741058e-001</left_val>
            <right_val>2.5035920739173889e-001</right_val></_></_>
        <_>
          <!-- tree 20 -->
          <_>
            <!-- root node -->
            <feature>
              <rects>
                <_>
                  0 15 6 8 -1.</_>
                <_>
                  2 15 2 8 3.</_></rects>
              <tilted>0</tilted></feature>
            <threshold>3.4302938729524612e-002</threshold>
            <left_val>6.2004238367080688e-002</left_val>
            <right_val>-8.2219320535659790e-001</right_val></_></_>
        <_>
          <!-- tree 21 -->
          <_>
            <!-- root node -->
            <feature>
              <rects>
                <_>
                  18 9 3 2 -1.</_>
                <_>
                  19 9 1 2 3.</_></rects>
              <tilted>0</tilted></feature>
            <threshold>1.9236300140619278e-003</threshold>
            <left_val>-8.5127763450145721e-002</left_val>
            <right_val>3.1955391168594360e-001</right_val></_></_>
        <_>
          <!-- tree 22 -->
          <_>
            <!-- root node -->
            <feature>
              <rects>
                <_>
                  2 18 4 6 -1.</_>
                <_>
                  2 18 2 3 2.</_>
                <_>
                  4 21 2 3 2.</_></rects>
              <tilted>0</tilted></feature>
            <threshold>5.2760150283575058e-003</threshold>
            <left_val>-1.2371540069580078e-001</left_val>
            <right_val>4.0743130445480347e-001</right_val></_></_>
        <_>
          <!-- tree 23 -->
          <_>
            <!-- root node -->
            <feature>
              <rects>
                <_>
                  12 13 6 2 -1.</_>
                <_>
                  15 13 3 1 2.</_>
                <_>
                  12 14 3 1 2.</_></rects>
              <tilted>0</tilted></feature>
            <threshold>1.1317840544506907e-003</threshold>
            <left_val>-7.2212956845760345e-002</left_val>
            <right_val>2.4437659978866577e-001</right_val></_></_>
        <_>
          <!-- tree 24 -->
          <_>
            <!-- root node -->
            <feature>
              <rects>
                <_>
                  5 10 10 2 -1.</_>
                <_>
                  5 10 5 1 2.</_>
                <_>
                  10 11 5 1 2.</_></rects>
              <tilted>0</tilted></feature>
            <threshold>-7.0870417403057218e-005</threshold>
            <left_val>1.8641899526119232e-001</left_val>
            <right_val>-2.7446070313453674e-001</right_val></_></_>
        <_>
          <!-- tree 25 -->
          <_>
            <!-- root node -->
            <feature>
              <rects>
                <_>
                  13 1 6 4 -1.</_>
                <_>
                  15 1 2 4 3.</_></rects>
              <tilted>0</tilted></feature>
            <threshold>-1.3228380121290684e-002</threshold>
            <left_val>-5.7784932851791382e-001</left_val>
            <right_val>4.8941090703010559e-002</right_val></_></_>
        <_>
          <!-- tree 26 -->
          <_>
            <!-- root node -->
            <feature>
              <rects>
                <_>
                  8 1 1 4 -1.</_>
                <_>
                  8 3 1 2 2.</_></rects>
              <tilted>0</tilted></feature>
            <threshold>3.2803390640765429e-003</threshold>
            <left_val>-8.5210353136062622e-002</left_val>
            <right_val>6.2143158912658691e-001</right_val></_></_>
        <_>
          <!-- tree 27 -->
          <_>
            <!-- root node -->
            <feature>
              <rects>
                <_>
                  7 5 10 3 -1.</_>
                <_>
                  7 6 10 1 3.</_></rects>
              <tilted>0</tilted></feature>
            <threshold>-4.5586521737277508e-003</threshold>
            <left_val>3.9384520053863525e-001</left_val>
            <right_val>-1.3980770111083984e-001</right_val></_></_></trees>
      <stage_threshold>-1.3040449619293213e+000</stage_threshold>
      <parent>5</parent>
      <next>-1</next></_>
    <_>
      <!-- stage 7 -->
      <trees>
        <_>
          <!-- tree 0 -->
          <_>
            <!-- root node -->
            <feature>
              <rects>
                <_>
                  6 3 10 20 -1.</_>
                <_>
                  6 13 10 10 2.</_></rects>
              <tilted>0</tilted></feature>
            <threshold>-3.9279851317405701e-001</threshold>
            <left_val>7.2413802146911621e-001</left_val>
            <right_val>-5.2988642454147339e-001</right_val></_></_>
        <_>
          <!-- tree 1 -->
          <_>
            <!-- root node -->
            <feature>
              <rects>
                <_>
                  6 16 18 1 -1.</_>
                <_>
                  6 16 9 1 2.</_></rects>
              <tilted>0</tilted></feature>
            <threshold>-5.0829402171075344e-003</threshold>
            <left_val>1.4399600215256214e-002</left_val>
            <right_val>-2.1346369385719299e-001</right_val></_></_>
        <_>
          <!-- tree 2 -->
          <_>
            <!-- root node -->
            <feature>
              <rects>
                <_>
                  7 12 10 12 -1.</_>
                <_>
                  7 16 10 4 3.</_></rects>
              <tilted>0</tilted></feature>
            <threshold>-1.1051770299673080e-001</threshold>
            <left_val>5.7346141338348389e-001</left_val>
            <right_val>-6.6986091434955597e-002</right_val></_></_>
        <_>
          <!-- tree 3 -->
          <_>
            <!-- root node -->
            <feature>
              <rects>
                <_>
                  7 23 10 1 -1.</_>
                <_>
                  7 23 5 1 2.</_></rects>
              <tilted>0</tilted></feature>
            <threshold>-7.4982142541557550e-004</threshold>
            <left_val>-3.0882731080055237e-001</left_val>
            <right_val>1.7472310364246368e-001</right_val></_></_>
        <_>
          <!-- tree 4 -->
          <_>
            <!-- root node -->
            <feature>
              <rects>
                <_>
                  4 16 10 2 -1.</_>
                <_>
                  4 16 5 1 2.</_>
                <_>
                  9 17 5 1 2.</_></rects>
              <tilted>0</tilted></feature>
            <threshold>4.4670281931757927e-003</threshold>
            <left_val>-8.7477609515190125e-002</left_val>
            <right_val>4.3039968609809875e-001</right_val></_></_>
        <_>
          <!-- tree 5 -->
          <_>
            <!-- root node -->
            <feature>
              <rects>
                <_>
                  16 0 4 1 -1.</_>
                <_>
                  16 0 2 1 2.</_></rects>
              <tilted>0</tilted></feature>
            <threshold>1.4913210179656744e-003</threshold>
            <left_val>7.1688510477542877e-002</left_val>
            <right_val>-3.5928770899772644e-001</right_val></_></_>
        <_>
          <!-- tree 6 -->
          <_>
            <!-- root node -->
            <feature>
              <rects>
                <_>
                  1 9 20 12 -1.</_>
                <_>
                  1 9 10 6 2.</_>
                <_>
                  11 15 10 6 2.</_></rects>
              <tilted>0</tilted></feature>
            <threshold>9.7396142780780792e-002</threshold>
            <left_val>7.4455700814723969e-002</left_val>
            <right_val>-7.1393007040023804e-001</right_val></_></_>
        <_>
          <!-- tree 7 -->
          <_>
            <!-- root node -->
            <feature>
              <rects>
                <_>
                  13 10 2 8 -1.</_>
                <_>
                  14 10 1 4 2.</_>
                <_>
                  13 14 1 4 2.</_></rects>
              <tilted>0</tilted></feature>
            <threshold>-8.2940217107534409e-003</threshold>
            <left_val>-3.4912151098251343e-001</left_val>
            <right_val>-4.0350211784243584e-003</right_val></_></_>
        <_>
          <!-- tree 8 -->
          <_>
            <!-- root node -->
            <feature>
              <rects>
                <_>
                  9 10 2 8 -1.</_>
                <_>
                  9 10 1 4 2.</_>
                <_>
                  10 14 1 4 2.</_></rects>
              <tilted>0</tilted></feature>
            <threshold>-2.7982878964394331e-003</threshold>
            <left_val>-4.8658999800682068e-001</left_val>
            <right_val>1.0066190361976624e-001</right_val></_></_>
        <_>
          <!-- tree 9 -->
          <_>
            <!-- root node -->
            <feature>
              <rects>
                <_>
                  8 14 15 3 -1.</_>
                <_>
                  8 15 15 1 3.</_></rects>
              <tilted>0</tilted></feature>
            <threshold>-1.4874669723212719e-002</threshold>
            <left_val>3.0791890621185303e-001</left_val>
            <right_val>-5.6742750108242035e-002</right_val></_></_>
        <_>
          <!-- tree 10 -->
          <_>
            <!-- root node -->
            <feature>
              <rects>
                <_>
                  2 15 12 8 -1.</_>
                <_>
                  2 15 6 4 2.</_>
                <_>
                  8 19 6 4 2.</_></rects>
              <tilted>0</tilted></feature>
            <threshold>-2.9729399830102921e-002</threshold>
            <left_val>4.8065608739852905e-001</left_val>
            <right_val>-9.7168937325477600e-002</right_val></_></_>
        <_>
          <!-- tree 11 -->
          <_>
            <!-- root node -->
            <feature>
              <rects>
                <_>
                  17 18 6 6 -1.</_>
                <_>
                  17 20 6 2 3.</_></rects>
              <tilted>0</tilted></feature>
            <threshold>-2.5928609538823366e-003</threshold>
            <left_val>1.9177779555320740e-001</left_val>
            <right_val>-9.6170946955680847e-002</right_val></_></_>
        <_>
          <!-- tree 12 -->
          <_>
            <!-- root node -->
            <feature>
              <rects>
                <_>
                  1 18 6 6 -1.</_>
                <_>
                  1 20 6 2 3.</_></rects>
              <tilted>0</tilted></feature>
            <threshold>-1.0321619920432568e-003</threshold>
            <left_val>2.8019720315933228e-001</left_val>
            <right_val>-2.0426140725612640e-001</right_val></_></_>
        <_>
          <!-- tree 13 -->
          <_>
            <!-- root node -->
            <feature>
              <rects>
                <_>
                  3 10 20 12 -1.</_>
                <_>
                  3 14 20 4 3.</_></rects>
              <tilted>0</tilted></feature>
            <threshold>-1.4260940253734589e-002</threshold>
            <left_val>1.3343040645122528e-001</left_val>
            <right_val>-2.6914289593696594e-001</right_val></_></_>
        <_>
          <!-- tree 14 -->
          <_>
            <!-- root node -->
            <feature>
              <rects>
                <_>
                  2 4 16 15 -1.</_>
                <_>
                  10 4 8 15 2.</_></rects>
              <tilted>0</tilted></feature>
            <threshold>-1.9896728917956352e-003</threshold>
            <left_val>1.9439129531383514e-001</left_val>
            <right_val>-2.7008861303329468e-001</right_val></_></_>
        <_>
          <!-- tree 15 -->
          <_>
            <!-- root node -->
            <feature>
              <rects>
                <_>
                  2 6 21 7 -1.</_>
                <_>
                  9 6 7 7 3.</_></rects>
              <tilted>0</tilted></feature>
            <threshold>1.5811909735202789e-001</threshold>
            <left_val>-9.0755328536033630e-002</left_val>
            <right_val>4.7379389405250549e-001</right_val></_></_>
        <_>
          <!-- tree 16 -->
          <_>
            <!-- root node -->
            <feature>
              <rects>
                <_>
                  2 0 6 1 -1.</_>
                <_>
                  4 0 2 1 3.</_></rects>
              <tilted>0</tilted></feature>
            <threshold>-3.2721080351620913e-003</threshold>
            <left_val>-6.8478792905807495e-001</left_val>
            <right_val>7.7645823359489441e-002</right_val></_></_>
        <_>
          <!-- tree 17 -->
          <_>
            <!-- root node -->
            <feature>
              <rects>
                <_>
                  8 1 8 18 -1.</_>
                <_>
                  8 7 8 6 3.</_></rects>
              <tilted>0</tilted></feature>
            <threshold>-9.6393123269081116e-002</threshold>
            <left_val>3.9963060617446899e-001</left_val>
            <right_val>-1.3332989811897278e-001</right_val></_></_>
        <_>
          <!-- tree 18 -->
          <_>
            <!-- root node -->
            <feature>
              <rects>
                <_>
                  9 10 1 4 -1.</_>
                <_>
                  9 12 1 2 2.</_></rects>
              <tilted>0</tilted></feature>
            <threshold>-1.9675529620144516e-004</threshold>
            <left_val>1.7780250310897827e-001</left_val>
            <right_val>-3.1533411145210266e-001</right_val></_></_>
        <_>
          <!-- tree 19 -->
          <_>
            <!-- root node -->
            <feature>
              <rects>
                <_>
                  16 20 8 2 -1.</_>
                <_>
                  16 20 4 2 2.</_></rects>
              <tilted>0</tilted></feature>
            <threshold>-5.2054119296371937e-003</threshold>
            <left_val>2.7523899078369141e-001</left_val>
            <right_val>-2.0064540207386017e-001</right_val></_></_>
        <_>
          <!-- tree 20 -->
          <_>
            <!-- root node -->
            <feature>
              <rects>
                <_>
                  9 5 2 3 -1.</_>
                <_>
                  10 5 1 3 2.</_></rects>
              <tilted>0</tilted></feature>
            <threshold>9.1869813331868500e-005</threshold>
            <left_val>-2.3369430005550385e-001</left_val>
            <right_val>2.2259420156478882e-001</right_val></_></_>
        <_>
          <!-- tree 21 -->
          <_>
            <!-- root node -->
            <feature>
              <rects>
                <_>
                  19 22 1 2 -1.</_>
                <_>
                  19 23 1 1 2.</_></rects>
              <tilted>0</tilted></feature>
            <threshold>-8.4619183326140046e-005</threshold>
            <left_val>1.2461259961128235e-001</left_val>
            <right_val>-1.1166159808635712e-001</right_val></_></_>
        <_>
          <!-- tree 22 -->
          <_>
            <!-- root node -->
            <feature>
              <rects>
                <_>
                  9 3 4 3 -1.</_>
                <_>
                  9 4 4 1 3.</_></rects>
              <tilted>0</tilted></feature>
            <threshold>-7.1088839322328568e-003</threshold>
            <left_val>6.1258047819137573e-001</left_val>
            <right_val>-8.4833040833473206e-002</right_val></_></_>
        <_>
          <!-- tree 23 -->
          <_>
            <!-- root node -->
            <feature>
              <rects>
                <_>
                  20 9 3 4 -1.</_>
                <_>
                  20 11 3 2 2.</_></rects>
              <tilted>0</tilted></feature>
            <threshold>-1.0717400349676609e-002</threshold>
            <left_val>-6.8910932540893555e-001</left_val>
            <right_val>3.8084480911493301e-002</right_val></_></_>
        <_>
          <!-- tree 24 -->
          <_>
            <!-- root node -->
            <feature>
              <rects>
                <_>
                  1 9 3 4 -1.</_>
                <_>
                  1 11 3 2 2.</_></rects>
              <tilted>0</tilted></feature>
            <threshold>-1.2244539902894758e-005</threshold>
            <left_val>2.1412280201911926e-001</left_val>
            <right_val>-2.7152431011199951e-001</right_val></_></_>
        <_>
          <!-- tree 25 -->
          <_>
            <!-- root node -->
            <feature>
              <rects>
                <_>
                  20 1 3 15 -1.</_>
                <_>
                  20 6 3 5 3.</_></rects>
              <tilted>0</tilted></feature>
            <threshold>-8.0591462552547455e-002</threshold>
            <left_val>-8.0259191989898682e-001</left_val>
            <right_val>5.0852708518505096e-003</right_val></_></_></trees>
      <stage_threshold>-1.2458980083465576e+000</stage_threshold>
      <parent>6</parent>
      <next>-1</next></_>
    <_>
      <!-- stage 8 -->
      <trees>
        <_>
          <!-- tree 0 -->
          <_>
            <!-- root node -->
            <feature>
              <rects>
                <_>
                  10 1 2 18 -1.</_>
                <_>
                  10 7 2 6 3.</_></rects>
              <tilted>0</tilted></feature>
            <threshold>1.0642640292644501e-001</threshold>
            <left_val>-5.1874327659606934e-001</left_val>
            <right_val>7.8948342800140381e-001</right_val></_></_>
        <_>
          <!-- tree 1 -->
          <_>
            <!-- root node -->
            <feature>
              <rects>
                <_>
                  14 18 10 3 -1.</_>
                <_>
                  14 18 5 3 2.</_></rects>
              <tilted>0</tilted></feature>
            <threshold>2.6501860469579697e-002</threshold>
            <left_val>-9.6236996352672577e-002</left_val>
            <right_val>3.5052868723869324e-001</right_val></_></_>
        <_>
          <!-- tree 2 -->
          <_>
            <!-- root node -->
            <feature>
              <rects>
                <_>
                  0 18 10 3 -1.</_>
                <_>
                  5 18 5 3 2.</_></rects>
              <tilted>0</tilted></feature>
            <threshold>-9.0050930157303810e-003</threshold>
            <left_val>2.2112290561199188e-001</left_val>
            <right_val>-2.7025970816612244e-001</right_val></_></_>
        <_>
          <!-- tree 3 -->
          <_>
            <!-- root node -->
            <feature>
              <rects>
                <_>
                  11 23 9 1 -1.</_>
                <_>
                  14 23 3 1 3.</_></rects>
              <tilted>0</tilted></feature>
            <threshold>-1.7685400089249015e-003</threshold>
            <left_val>-2.7046281099319458e-001</left_val>
            <right_val>1.0461729764938354e-001</right_val></_></_>
        <_>
          <!-- tree 4 -->
          <_>
            <!-- root node -->
            <feature>
              <rects>
                <_>
                  3 12 18 4 -1.</_>
                <_>
                  3 12 9 2 2.</_>
                <_>
                  12 14 9 2 2.</_></rects>
              <tilted>0</tilted></feature>
            <threshold>-1.1212949641048908e-002</threshold>
            <left_val>-4.0069478750228882e-001</left_val>
            <right_val>1.4361150562763214e-001</right_val></_></_>
        <_>
          <!-- tree 5 -->
          <_>
            <!-- root node -->
            <feature>
              <rects>
                <_>
                  8 15 9 2 -1.</_>
                <_>
                  8 16 9 1 2.</_></rects>
              <tilted>0</tilted></feature>
            <threshold>4.9689048901200294e-003</threshold>
            <left_val>-1.1450319737195969e-001</left_val>
            <right_val>3.7214660644531250e-001</right_val></_></_>
        <_>
          <!-- tree 6 -->
          <_>
            <!-- root node -->
            <feature>
              <rects>
                <_>
                  0 0 22 24 -1.</_>
                <_>
                  0 0 11 12 2.</_>
                <_>
                  11 12 11 12 2.</_></rects>
              <tilted>0</tilted></feature>
            <threshold>2.0737379789352417e-001</threshold>
            <left_val>6.2324628233909607e-002</left_val>
            <right_val>-7.9455542564392090e-001</right_val></_></_>
        <_>
          <!-- tree 7 -->
          <_>
            <!-- root node -->
            <feature>
              <rects>
                <_>
                  12 4 8 20 -1.</_>
                <_>
                  12 4 4 20 2.</_></rects>
              <tilted>0</tilted></feature>
            <threshold>-2.1176789700984955e-001</threshold>
            <left_val>-1.</left_val>
            <right_val>1.3119599781930447e-002</right_val></_></_>
        <_>
          <!-- tree 8 -->
          <_>
            <!-- root node -->
            <feature>
              <rects>
                <_>
                  0 6 12 6 -1.</_>
                <_>
                  4 6 4 6 3.</_></rects>
              <tilted>0</tilted></feature>
            <threshold>-1.3660600408911705e-002</threshold>
            <left_val>2.1835710108280182e-001</left_val>
            <right_val>-1.8986639380455017e-001</right_val></_></_>
        <_>
          <!-- tree 9 -->
          <_>
            <!-- root node -->
            <feature>
              <rects>
                <_>
                  17 12 3 10 -1.</_>
                <_>
                  17 17 3 5 2.</_></rects>
              <tilted>0</tilted></feature>
            <threshold>-2.5435499846935272e-002</threshold>
            <left_val>3.2085439562797546e-001</left_val>
            <right_val>-7.9335361719131470e-002</right_val></_></_>
        <_>
          <!-- tree 10 -->
          <_>
            <!-- root node -->
            <feature>
              <rects>
                <_>
                  0 1 6 3 -1.</_>
                <_>
                  2 1 2 3 3.</_></rects>
              <tilted>0</tilted></feature>
            <threshold>-9.5941480249166489e-003</threshold>
            <left_val>-6.2949019670486450e-001</left_val>
            <right_val>7.7480778098106384e-002</right_val></_></_>
        <_>
          <!-- tree 11 -->
          <_>
            <!-- root node -->
            <feature>
              <rects>
                <_>
                  15 14 3 2 -1.</_>
                <_>
                  16 14 1 2 3.</_></rects>
              <tilted>0</tilted></feature>
            <threshold>-2.9299010057002306e-003</threshold>
            <left_val>3.4790751338005066e-001</left_val>
            <right_val>-6.5408967435359955e-002</right_val></_></_>
        <_>
          <!-- tree 12 -->
          <_>
            <!-- root node -->
            <feature>
              <rects>
                <_>
                  6 14 3 2 -1.</_>
                <_>
                  7 14 1 2 3.</_></rects>
              <tilted>0</tilted></feature>
            <threshold>-1.1081119737355039e-005</threshold>
            <left_val>1.6740499436855316e-001</left_val>
            <right_val>-2.4585689604282379e-001</right_val></_></_>
        <_>
          <!-- tree 13 -->
          <_>
            <!-- root node -->
            <feature>
              <rects>
                <_>
                  2 3 20 4 -1.</_>
                <_>
                  12 3 10 2 2.</_>
                <_>
                  2 5 10 2 2.</_></rects>
              <tilted>0</tilted></feature>
            <threshold>3.5184990614652634e-002</threshold>
            <left_val>5.3868539631366730e-002</left_val>
            <right_val>-8.9003419876098633e-001</right_val></_></_>
        <_>
          <!-- tree 14 -->
          <_>
            <!-- root node -->
            <feature>
              <rects>
                <_>
                  7 2 10 6 -1.</_>
                <_>
                  7 4 10 2 3.</_></rects>
              <tilted>0</tilted></feature>
            <threshold>2.7997529134154320e-002</threshold>
            <left_val>-1.1618980020284653e-001</left_val>
            <right_val>4.3350279331207275e-001</right_val></_></_>
        <_>
          <!-- tree 15 -->
          <_>
            <!-- root node -->
            <feature>
              <rects>
                <_>
                  14 5 6 8 -1.</_>
                <_>
                  16 5 2 8 3.</_></rects>
              <tilted>0</tilted></feature>
            <threshold>-9.3653239309787750e-003</threshold>
            <left_val>2.2078029811382294e-001</left_val>
            <right_val>-9.2879220843315125e-002</right_val></_></_>
        <_>
          <!-- tree 16 -->
          <_>
            <!-- root node -->
            <feature>
              <rects>
                <_>
                  4 5 6 8 -1.</_>
                <_>
                  6 5 2 8 3.</_></rects>
              <tilted>0</tilted></feature>
            <threshold>7.8043178655207157e-003</threshold>
            <left_val>-1.4664709568023682e-001</left_val>
            <right_val>3.5056918859481812e-001</right_val></_></_>
        <_>
          <!-- tree 17 -->
          <_>
            <!-- root node -->
            <feature>
              <rects>
                <_>
                  6 4 13 20 -1.</_>
                <_>
                  6 14 13 10 2.</_></rects>
              <tilted>0</tilted></feature>
            <threshold>-3.8548970222473145e-001</threshold>
            <left_val>4.6949571371078491e-001</left_val>
            <right_val>-7.9622723162174225e-002</right_val></_></_>
        <_>
          <!-- tree 18 -->
          <_>
            <!-- root node -->
            <feature>
              <rects>
                <_>
                  0 9 2 4 -1.</_>
                <_>
                  0 9 1 2 2.</_>
                <_>
                  1 11 1 2 2.</_></rects>
              <tilted>0</tilted></feature>
            <threshold>4.5483041321858764e-004</threshold>
            <left_val>1.2580110132694244e-001</left_val>
            <right_val>-3.3674639463424683e-001</right_val></_></_>
        <_>
          <!-- tree 19 -->
          <_>
            <!-- root node -->
            <feature>
              <rects>
                <_>
                  20 9 3 3 -1.</_>
                <_>
                  21 9 1 3 3.</_></rects>
              <tilted>0</tilted></feature>
            <threshold>-4.7267629270209000e-005</threshold>
            <left_val>1.5308830142021179e-001</left_val>
            <right_val>-1.6366040706634521e-001</right_val></_></_>
        <_>
          <!-- tree 20 -->
          <_>
            <!-- root node -->
            <feature>
              <rects>
                <_>
                  4 4 8 20 -1.</_>
                <_>
                  8 4 4 20 2.</_></rects>
              <tilted>0</tilted></feature>
            <threshold>-1.6051809489727020e-001</threshold>
            <left_val>-9.3818038702011108e-001</left_val>
            <right_val>4.4855799525976181e-002</right_val></_></_>
        <_>
          <!-- tree 21 -->
          <_>
            <!-- root node -->
            <feature>
              <rects>
                <_>
                  7 10 14 3 -1.</_>
                <_>
                  7 10 7 3 2.</_></rects>
              <tilted>0</tilted></feature>
            <threshold>-1.7869990319013596e-002</threshold>
            <left_val>1.6696409881114960e-001</left_val>
            <right_val>-1.2026959657669067e-001</right_val></_></_>
        <_>
          <!-- tree 22 -->
          <_>
            <!-- root node -->
            <feature>
              <rects>
                <_>
                  0 19 23 2 -1.</_>
                <_>
                  0 20 23 1 2.</_></rects>
              <tilted>0</tilted></feature>
            <threshold>8.8356863707304001e-003</threshold>
            <left_val>-1.2139129638671875e-001</left_val>
            <right_val>3.5554221272468567e-001</right_val></_></_>
        <_>
          <!-- tree 23 -->
          <_>
            <!-- root node -->
            <feature>
              <rects>
                <_>
                  7 10 14 3 -1.</_>
                <_>
                  7 10 7 3 2.</_></rects>
              <tilted>0</tilted></feature>
            <threshold>3.5660259425640106e-002</threshold>
            <left_val>-5.7700030505657196e-002</left_val>
            <right_val>3.8737449049949646e-001</right_val></_></_>
        <_>
          <!-- tree 24 -->
          <_>
            <!-- root node -->
            <feature>
              <rects>
                <_>
                  3 10 14 3 -1.</_>
                <_>
                  10 10 7 3 2.</_></rects>
              <tilted>0</tilted></feature>
            <threshold>-1.0372339747846127e-002</threshold>
            <left_val>2.9519590735435486e-001</left_val>
            <right_val>-1.7253029346466064e-001</right_val></_></_>
        <_>
          <!-- tree 25 -->
          <_>
            <!-- root node -->
            <feature>
              <rects>
                <_>
                  12 9 4 4 -1.</_>
                <_>
                  12 9 2 4 2.</_></rects>
              <tilted>0</tilted></feature>
            <threshold>1.8184939399361610e-002</threshold>
            <left_val>1.3074650429189205e-002</left_val>
            <right_val>-3.9449790120124817e-001</right_val></_></_>
        <_>
          <!-- tree 26 -->
          <_>
            <!-- root node -->
            <feature>
              <rects>
                <_>
                  8 9 4 4 -1.</_>
                <_>
                  10 9 2 4 2.</_></rects>
              <tilted>0</tilted></feature>
            <threshold>1.8938570283353329e-003</threshold>
            <left_val>-1.9829820096492767e-001</left_val>
            <right_val>2.6541799306869507e-001</right_val></_></_></trees>
      <stage_threshold>-1.0416220426559448e+000</stage_threshold>
      <parent>7</parent>
      <next>-1</next></_>
    <_>
      <!-- stage 9 -->
      <trees>
        <_>
          <!-- tree 0 -->
          <_>
            <!-- root node -->
            <feature>
              <rects>
                <_>
                  5 10 7 14 -1.</_>
                <_>
                  5 17 7 7 2.</_></rects>
              <tilted>0</tilted></feature>
            <threshold>1.5555639564990997e-001</threshold>
            <left_val>-5.3441858291625977e-001</left_val>
            <right_val>3.7778189778327942e-001</right_val></_></_>
        <_>
          <!-- tree 1 -->
          <_>
            <!-- root node -->
            <feature>
              <rects>
                <_>
                  17 15 3 8 -1.</_>
                <_>
                  17 19 3 4 2.</_></rects>
              <tilted>0</tilted></feature>
            <threshold>1.8417600542306900e-002</threshold>
            <left_val>-1.3283659517765045e-001</left_val>
            <right_val>2.5818270444869995e-001</right_val></_></_>
        <_>
          <!-- tree 2 -->
          <_>
            <!-- root node -->
            <feature>
              <rects>
                <_>
                  4 15 3 8 -1.</_>
                <_>
                  4 19 3 4 2.</_></rects>
              <tilted>0</tilted></feature>
            <threshold>-1.1141760274767876e-002</threshold>
            <left_val>3.6991271376609802e-001</left_val>
            <right_val>-1.5968939661979675e-001</right_val></_></_>
        <_>
          <!-- tree 3 -->
          <_>
            <!-- root node -->
            <feature>
              <rects>
                <_>
                  20 0 4 6 -1.</_>
                <_>
                  20 0 2 6 2.</_></rects>
              <tilted>0</tilted></feature>
            <threshold>1.7193909734487534e-003</threshold>
            <left_val>1.4215150475502014e-001</left_val>
            <right_val>-2.3881219327449799e-001</right_val></_></_>
        <_>
          <!-- tree 4 -->
          <_>
            <!-- root node -->
            <feature>
              <rects>
                <_>
                  9 8 4 15 -1.</_>
                <_>
                  9 13 4 5 3.</_></rects>
              <tilted>0</tilted></feature>
            <threshold>-9.4609193503856659e-002</threshold>
            <left_val>4.3100649118423462e-001</left_val>
            <right_val>-1.0649990290403366e-001</right_val></_></_>
        <_>
          <!-- tree 5 -->
          <_>
            <!-- root node -->
            <feature>
              <rects>
                <_>
                  21 17 2 1 -1.</_>
                <_>
                  21 17 1 1 2.</_></rects>
              <tilted>0</tilted></feature>
            <threshold>-5.6977029889822006e-003</threshold>
            <left_val>1.</left_val>
            <right_val>1.1302420170977712e-003</right_val></_></_>
        <_>
          <!-- tree 6 -->
          <_>
            <!-- root node -->
            <feature>
              <rects>
                <_>
                  1 17 2 1 -1.</_>
                <_>
                  2 17 1 1 2.</_></rects>
              <tilted>0</tilted></feature>
            <threshold>3.9230191032402217e-004</threshold>
            <left_val>9.5619693398475647e-002</left_val>
            <right_val>-4.5010399818420410e-001</right_val></_></_>
        <_>
          <!-- tree 7 -->
          <_>
            <!-- root node -->
            <feature>
              <rects>
                <_>
                  14 9 2 2 -1.</_>
                <_>
                  14 10 2 1 2.</_></rects>
              <tilted>0</tilted></feature>
            <threshold>1.0822319745784625e-004</threshold>
            <left_val>1.0992030054330826e-001</left_val>
            <right_val>-1.3942320644855499e-001</right_val></_></_>
        <_>
          <!-- tree 8 -->
          <_>
            <!-- root node -->
            <feature>
              <rects>
                <_>
                  7 4 2 18 -1.</_>
                <_>
                  7 4 1 9 2.</_>
                <_>
                  8 13 1 9 2.</_></rects>
              <tilted>0</tilted></feature>
            <threshold>1.0721430182456970e-002</threshold>
            <left_val>5.7033561170101166e-002</left_val>
            <right_val>-8.5466468334197998e-001</right_val></_></_>
        <_>
          <!-- tree 9 -->
          <_>
            <!-- root node -->
            <feature>
              <rects>
                <_>
                  8 13 8 3 -1.</_>
                <_>
                  8 14 8 1 3.</_></rects>
              <tilted>0</tilted></feature>
            <threshold>6.3045630231499672e-003</threshold>
            <left_val>-1.2544660270214081e-001</left_val>
            <right_val>4.6313899755477905e-001</right_val></_></_>
        <_>
          <!-- tree 10 -->
          <_>
            <!-- root node -->
            <feature>
              <rects>
                <_>
                  0 14 24 1 -1.</_>
                <_>
                  8 14 8 1 3.</_></rects>
              <tilted>0</tilted></feature>
            <threshold>-8.7655857205390930e-003</threshold>
            <left_val>1.6223239898681641e-001</left_val>
            <right_val>-2.7272090315818787e-001</right_val></_></_>
        <_>
          <!-- tree 11 -->
          <_>
            <!-- root node -->
            <feature>
              <rects>
                <_>
                  18 4 6 2 -1.</_>
                <_>
                  20 4 2 2 3.</_></rects>
